tree
version=v4
num_class=1
num_tree_per_iteration=1
label_index=0
max_feature_idx=10
objective=binary sigmoid:1
feature_names=log_amount is_chip has_error hour dayofweek time_since_prev_tx tx_count_1h tx_count_24h amount_vs_user_median is_new_mcc_for_user is_new_merchant_for_user
feature_infos=[-2.4798597163593268:3.8382312266604863] none none [0:23] [0:6] [-0.10296286194897307:319.1100976221594] [-0.51999466099974978:11.950016920329167] [-1.7438003817388739:9.2259314576717593] [-49.673737295071703:156.78875617662979] [0:1] [0:1]
tree_sizes=3430 3516 3558 3540 3553 3528

Tree=0
num_leaves=31
num_cat=0
split_feature=10 5 5 8 3 7 7 8 3 0 0 3 8 7 4 0 5 3 8 7 3 4 3 7 4 7 7 5 3 0
split_gain=172772 108619 38409.2 31656.6 30455.8 18347.1 17943.4 13845.5 14931.5 10813.4 10731.7 8903.72 10944.6 5215.92 5050.05 4988.09 4808.04 4362.82 6287.75 4579.22 4146.38 3975.73 3774.22 3680.97 3654.77 3396.7 2959.28 2900.01 2888.79 2590.96
threshold=1.0000000180025095e-35 -0.097837841318495836 -0.062904027225038947 1.0000000180025095e-35 15.500000000000002 0.63297485013343013 0.63297485013343013 0.033304460134202844 16.500000000000004 1.4637519564288441 -1.4740684001337117 15.500000000000002 -0.024179857371201225 0.63297485013343013 2.5000000000000004 -1.6891052543713663 -0.075455098156819875 16.500000000000004 0.033304460134202844 1.3642903060941391 12.500000000000002 5.5000000000000009 15.500000000000002 0.63297485013343013 5.5000000000000009 1.0000000180025095e-35 1.3642903060941391 -0.089679645212838235 17.500000000000004 1.041599162220656
decision_type=2 2 2 2 2 2 2 2 2 2 2 2 2 2 2 2 2 2 2 2 2 2 2 2 2 2 2 2 2 2
left_child=9 3 6 10 5 14 11 15 21 29 13 12 -3 -2 -5 -8 22 18 -4 -20 -16 26 -11 -12 -7 -14 -9 -23 -6 -1
right_child=1 2 17 4 28 24 7 8 -10 16 23 -13 25 -15 20 -17 -18 -19 19 -21 -22 27 -24 -25 -26 -27 -28 -29 -30 -31
leaf_value=-6.6930261048482231 -2.1039861403492166 -5.861076033190904 -6.374587512769323 -2.9892604792822794 -3.4459379270238437 1.832355395917256 -0.36957781624633856 -3.2587026756513562 -5.8070672052157919 -6.1532687359150176 -5.2217806790108883 -6.2516069198285154 -5.0779936487654354 4.986326284767534 0.16436601011057395 -5.2878195576997875 -6.5819986634526515 -6.5632640655205927 -5.9558622461551085 -4.2178246457280277 -2.6787144477014473 3.1532889938570925 -6.5783816559025174 -3.7712043193677767 6.2904700409251362 -4.0969599923342415 -1.2916329029016813 -1.4087579798244558 -5.8158082203763106 -6.6324593511774772
leaf_weight=21693.28009143332 1.0743058840744222 53.613222385756671 177.5832729965914 4.3520871384535003 1.9597789049148548 2.8031473008450116 0.52822165796533482 5.1405919322278315 3.7587946965359142 151.87776154000312 18.122851279564205 43.369039555313066 29.321405607974157 0.34194059018045653 4.0139742414467037 21.456772033823654 430.50958252581768 107.85418645199388 106.38435227330774 3.9297649916261426 1.8845009391661731 0.55246371473185718 79.561154410010204 5.7645059195347121 0.54991191928274918 12.621180291287599 3.0442919707857072 0.94288841844536431 3.739656230667606 1922.2228553926107
leaf_count=17002366 842 42020 139183 3411 1536 2197 414 4029 2946 119036 14204 33991 22981 268 3146 16817 337417 84532 83380 3080 1477 433 62357 4518 431 9892 2386 739 2931 1506565
internal_value=-6.66155 -5.83371 -6.01963 -3.45761 -1.93258 -0.647051 -5.40131 -4.3968 -3.13249 -6.68251 -4.621 -5.65745 -5.38778 -0.392091 -1.69725 -5.16965 -6.4832 -6.29203 -6.19042 -5.89395 -0.743968 -2.09396 -6.29941 -4.87173 2.5635 -4.78279 -2.52707 0.276708 -5.00092 -6.6881
internal_weight=24892.2 614.707 570.1 44.6067 19.3031 13.6036 174.349 35.424 13.439 24277.5 25.3036 138.925 95.5558 1.41625 10.2506 21.985 661.948 395.752 287.897 110.314 5.89848 9.68024 231.439 23.8874 3.35306 41.9426 8.18488 1.49535 5.69944 23615.5
internal_count=19509525 481784 446823 34961 15129 10662 136648 27764 10533 19027741 19832 108884 74893 1110 8034 17231 518810 310175 225643 86460 4623 7587 181393 18722 2628 32873 6415 1172 4467 18508931
is_linear=0
shrinkage=1


Tree=1
num_leaves=31
num_cat=0
split_feature=8 10 5 8 8 3 0 5 10 9 3 8 5 0 10 5 4 0 5 5 0 5 0 3 0 8 3 5 3 3
split_gain=6186.76 6814.52 6650.08 3011.99 2608.55 2388.12 2132.67 1621.95 5269.88 4905.4 1643.49 1376.88 1307.5 1136.52 1376.19 1314.76 1126.1 1103.97 1345.6 1298.49 985.858 824.583 916.434 673.126 650.241 967.837 1269.86 1077.6 636.636 606.479
threshold=0.45462012304642113 1.0000000180025095e-35 -0.097837841318495836 1.0000000180025095e-35 -2.2404811167206793 9.5000000000000018 -1.4740684001337117 -0.097837841318495836 1.0000000180025095e-35 1.0000000180025095e-35 13.500000000000002 0.033304460134202844 -0.062904027225038947 1.279245872472156 1.0000000180025095e-35 -0.061648920131860858 5.5000000000000009 -1.6891052543713663 -0.062276473678449913 -0.040730468578892662 1.7442111942993279 -0.064786687864806083 1.041599162220656 18.500000000000004 -2.2423170743386165 -0.33085361924586126 9.5000000000000018 -0.018975278963805738 15.500000000000002 15.500000000000002
decision_type=2 2 2 2 2 2 2 2 2 2 2 2 2 2 2 2 2 2 2 2 2 2 2 2 2 2 2 2 2 2
left_child=1 4 3 6 5 -1 -3 8 9 20 13 17 -13 14 -9 -16 28 18 -4 23 -2 22 -6 -19 -20 26 -26 -28 -11 -10
right_child=7 2 11 -5 21 -7 -8 10 29 16 -12 12 -14 -15 15 -17 -18 19 24 -21 -22 -23 -24 -25 25 -27 27 -29 -30 -31
leaf_value=0.66726152157807883 -0.010473495032644812 -0.10715771122517533 -0.0027411670473791823 -0.10369154396919505 -0.02394630963980408 0.086495113052900363 0.20002593478935143 0.022562694357662842 -0.093775406069837169 0.35876863738866621 0.022699517944567565 0.037188781108724214 0.22140505229951357 0.14098194716277521 0.11231567119946027 0.46943242042584887 0.68021075557038035 0.31527771362492352 -0.050083505579507782 0.13387527582647726 0.3086338067488219 -0.039946336273491596 0.042739076498495239 0.085431433266719481 0.8037577587955449 0.48829911919888414 6.254881262614747 2.1881775928132154 0.10120241518478637 0.13377778121128855
leaf_weight=23.699209796497598 298.03275948821101 83.389052158221602 104.58798845973797 589.34876559814438 9053.9525354362559 69.934121463447809 175.24224623851478 603.77720225602388 722.47549386834726 105.29578225011937 1190.9152317408007 400.41125503729563 126.83264171599876 826.18108407699037 114.12305083172396 33.291530683636665 22.73078581423033 268.41217640519608 2.4976983857341093 247.88347247103229 26.343014625017531 11640.080281467177 546.29080384771805 36.143100251094438 1.2297343206591889 4.4577939917799103 0.22997761575970799 0.5584698594175278 31.070624942425638 30.518164840061218
leaf_count=19167 229593 1110 2123 6617 7322485 56560 18722 477526 5977 70429 752499 21746 49952 357589 5395 11352 15714 89455 1506 152300 14446 9375757 404769 16604 724 2678 145 348 23702 2535
internal_value=-0.0116503 -0.021488 0.0657891 -0.0412666 -0.0298387 0.233491 0.100982 0.0457713 -0.00184066 0.126981 0.0670373 0.141868 0.0815034 0.100512 0.0560027 0.192966 0.354393 0.189657 0.0476734 0.218843 0.0154417 -0.0309995 -0.0201517 0.288001 0.635254 0.89958 1.80802 3.37437 0.300083 -0.0845529
internal_weight=27379.9 23375.2 2041.22 847.98 21334 93.6333 258.631 4004.75 1236.47 483.473 2768.29 1193.24 527.244 1577.37 751.192 147.415 159.097 666 113.562 552.439 324.376 21240.3 9600.24 304.555 8.97367 6.47598 2.01818 0.788447 136.366 752.994
internal_count=19509525 17542768 364030 26449 17178738 75727 19832 1966757 362396 353884 1604361 337581 71698 851862 494273 16747 109845 265883 7524 258359 244039 17103011 7727254 106059 5401 3895 1217 493 94131 8512
is_linear=0
shrinkage=0.05


Tree=2
num_leaves=31
num_cat=0
split_feature=8 8 5 3 3 5 9 0 6 7 5 8 7 3 0 0 5 3 9 6 5 8 5 7 3 3 9 3 8 3
split_gain=5435.99 1856.42 1391.85 1231.35 1104.29 867.012 1177.39 845.967 535.518 457.304 1002.05 445.868 430.325 377.099 374.452 363.852 359.12 300.474 299.467 286.564 280.023 273.13 253.87 248.889 196.623 196.284 182.688 179.558 179.555 178.946
threshold=0.45462012304642113 -1.5411546201928303 -0.097837841318495836 14.500000000000002 9.5000000000000018 -0.050771325324317398 1.0000000180025095e-35 1.0566715067171815 1.0000000180025095e-35 2.0956057620548481 -0.033199826019824109 1.6702564922668401 0.63297485013343013 15.500000000000002 2.0012592375000251 2.1710857240035781 -0.038220254392536478 6.5000000000000009 1.0000000180025095e-35 1.0000000180025095e-35 -0.1005572400203817 0.033304460134202844 -0.027133475069463335 0.63297485013343013 16.500000000000004 14.500000000000002 1.0000000180025095e-35 13.500000000000002 1.0000000180025095e-35 19.500000000000004
decision_type=2 2 2 2 2 2 2 2 2 2 2 2 2 2 2 2 2 2 2 2 2 2 2 2 2 2 2 2 2 2
left_child=1 4 12 7 9 6 -3 -4 20 19 -11 17 -2 14 -14 18 29 -9 -13 23 28 -7 -21 -1 -10 -23 -15 -6 -8 -5
right_child=2 5 3 16 27 21 8 11 24 10 -12 15 13 26 -16 -17 -18 -19 -20 22 -22 25 -24 -25 -26 -27 -28 -29 -30 -31
leaf_value=0.29957756186893031 0.012778413262388941 -0.03811697692242566 0.030963711106487726 0.056084362601545978 0.12132125113686867 -0.036705071966616605 0.041933631615190606 0.024158987730593467 0.021456450495184274 0.6603889220134127 4.6816031734290311 0.51077602499676933 -0.051703948818822454 -0.022795041834944546 -0.22016619005077431 0.071085540713748799 -0.020602876416195914 0.096512827771786019 0.1609137020775338 0.044381025718762776 -0.015177191899205231 -0.0017887871523095907 0.48170462709006573 0.67118418945395286 -0.015962007042424252 -0.036068031915268792 0.20678584136433625 0.0053938425341450227 -0.011265802873693409 -0.011883663692918156
leaf_weight=41.894205914344639 1032.5344903459772 3483.1044448527973 570.76046250667423 421.83574980974663 51.487390998983756 8612.1196555645438 375.39315625547897 179.15362203528639 2159.2602546177804 1.1259984395001081 0.17963928217068215 6.2221278120996422 211.94661215180531 16.493648613919504 39.066074614180252 136.00609092088416 429.2544872125145 720.82550741918385 359.90093444532249 18.523052806267518 5712.8321551769041 1076.7511080057593 4.0428208264056584 5.0488992964383206 419.2418491957942 682.17265331733506 18.2566003248794 95.092042955220677 274.64989747502841 125.69461611635052
leaf_count=22973 278726 2820298 368299 230325 39628 7116847 252511 101100 1342958 693 99 2988 61838 12443 1931 33406 314533 320586 142647 10869 4097354 833042 2201 2615 316174 548140 7458 73551 62815 90477
internal_value=-0.0113665 -0.0209783 0.0404606 0.0595493 0.124442 -0.0223651 -0.0134561 0.0822807 -0.00384943 0.286571 1.21366 0.103171 -0.00224996 -0.0565513 -0.0779224 0.140918 0.0136374 0.0821098 0.166859 0.269157 -0.011639 -0.0330381 0.12273 0.339545 0.0153725 -0.0150835 0.097819 0.0461144 0.0194563 0.0404812
internal_weight=27280.9 23012.9 4267.95 2949.65 217.394 22795.5 12424.5 1972.87 8941.38 70.8146 1.30564 1402.11 1318.3 285.763 251.013 502.129 976.785 899.979 366.123 69.509 6362.88 10371 22.5659 46.9431 2578.5 1758.92 34.7502 146.579 650.043 547.53
internal_count=19509525 17542768 1966757 1604361 152629 17390139 8892110 969026 6071812 39450 792 600727 362396 83670 63769 179041 635335 421686 145635 38658 4412680 8498029 13070 25588 1659132 1381182 19901 113179 315326 320802
is_linear=0
shrinkage=0.05


Tree=3
num_leaves=31
num_cat=0
split_feature=8 8 0 9 3 8 3 3 9 0 8 8 6 0 6 3 3 8 3 0 4 7 7 7 3 0 0 3 9 3
split_gain=4856.33 1395.03 933.396 651.543 538.331 569.26 512.047 375.871 391.82 366.172 437.61 351.516 348.841 241.627 216.988 207.37 182.391 241.846 135.102 128.602 128.008 126.099 180.465 123.669 113.303 123.152 113.184 111.339 110.65 105.223
threshold=0.47793277389792965 -1.5411546201928303 1.0566715067171815 1.0000000180025095e-35 17.500000000000004 0.15086386138322491 12.500000000000002 19.500000000000004 1.0000000180025095e-35 2.1710857240035781 1.6702564922668401 2.1793786572449512 1.0000000180025095e-35 1.8575774209914904 1.0000000180025095e-35 7.5000000000000009 3.5000000000000004 5.0204047612927054 6.5000000000000009 0.89315974262011111 5.5000000000000009 0.63297485013343013 -0.46399833380763322 0.63297485013343013 11.500000000000002 1.3737496555309405 1.8575774209914904 17.500000000000004 1.0000000180025095e-35 11.500000000000002
decision_type=2 2 2 2 2 2 2 2 2 2 2 2 2 2 2 2 2 2 2 2 2 2 2 2 2 2 2 2 2 2
left_child=1 6 27 -3 5 12 14 8 11 10 18 24 -5 -13 -1 16 -15 -18 -10 -7 -14 22 29 -11 25 -4 -23 28 -2 -20
right_child=2 3 7 4 -6 19 -8 -9 9 23 -12 13 20 15 -16 -17 17 -19 21 -21 -22 26 -24 -25 -26 -27 -28 -29 -30 -31
leaf_value=0.19939769282613784 -0.024700416951753568 -0.038862155033880311 0.063683356904213076 -0.022163429486841246 -0.0370414821252791 -0.0027763635473955451 0.01344028696519798 -0.011082280383054782 0.0079166277590396236 0.026031741369902481 0.091033900665697609 0.18718297084052521 -0.0076143336351160249 0.40438068129055715 0.073337428938669069 0.35687151496721159 0.88267846548959616 2.4140784557034536 0.064381366309612151 0.022981803112438207 0.019780028979340128 0.038062468284854246 0.081875297577396325 -0.038518208372399915 0.04978388130439839 0.20281647313969808 -0.038260479632734379 -0.03142788246062362 0.016179688708886326 0.015967682065319729
leaf_weight=97.090287889353931 204.25297419261187 4380.4640293621924 27.672155043343082 9726.6340426752577 2915.1098417321919 871.64151174027938 111.2038849836681 214.14519054524135 213.54855177889112 212.03672414645553 763.87564224749804 20.829543810454201 2948.5770357664442 1.1000424018129691 52.646968259825371 7.7252373010851443 1.0207051304168997 0.34493589005433012 206.37288535817061 1091.1966103556333 498.53544703219086 355.82431163801812 488.71101083944086 114.14538430434186 63.54182583570946 37.400180358672515 56.254744246951304 209.25811932969373 873.0135831591906 246.02919892652426
leaf_count=42951 160934 3705751 17918 7687859 2402500 535147 84169 149752 96795 48194 223442 9911 2206234 379 25509 2701 344 119 75287 559206 368790 79107 196644 8928 38494 15721 6063 163266 472078 125332
internal_value=-0.0109796 -0.0202267 0.0376288 -0.0215638 -0.0173661 -0.0135769 0.0947156 0.0527767 0.0576322 0.0530608 0.0600051 0.133714 -0.0173197 0.284791 0.155075 0.484295 0.883525 1.26948 0.0448768 0.0115433 -0.00365245 0.0507095 0.0608093 0.00344289 0.0972753 0.14365 0.0276433 0.00194587 0.0084287 0.0380526
internal_weight=27010.2 22693.1 4317.1 22432.2 18051.7 15136.6 260.941 3030.58 2816.43 2656.8 2330.62 159.635 13173.7 31.0205 149.737 10.1909 2.46568 1.36564 1566.74 1962.84 3447.11 1353.19 941.113 326.182 128.614 65.0723 412.079 1286.52 1077.27 452.402
internal_count=19509525 17618116 1891409 17465487 13759736 11357236 152629 1095131 945379 859792 802670 85587 10262883 13454 68460 3543 842 463 579228 1094353 2575024 482433 397263 57122 72133 33639 85170 796278 633012 200619
is_linear=0
shrinkage=0.05


Tree=4
num_leaves=31
num_cat=0
split_feature=8 10 5 8 0 8 5 10 0 10 5 5 6 5 8 0 8 6 5 3 3 0 5 3 0 0 3 8 3 3
split_gain=4366.7 5761.84 4772.75 2613.32 1617.32 1449.31 1128.72 4183.62 1997.87 993.054 1966.48 1574.91 970.53 781.552 825.203 743.379 1251.06 877.038 777.378 634.824 553.632 547.444 532.627 497.124 485.482 467.726 446.734 417.917 392.846 364.498
threshold=0.41269639790326001 1.0000000180025095e-35 -0.097837841318495836 1.0000000180025095e-35 -1.4740684001337117 -1.5411546201928303 -0.097837841318495836 1.0000000180025095e-35 1.041599162220656 1.0000000180025095e-35 -0.062904027225038947 -0.06666934850457322 1.0000000180025095e-35 -0.064786687864806083 0.061931756009816666 -1.6891052543713663 0.033304460134202844 1.0000000180025095e-35 -0.062904027225038947 15.500000000000002 15.500000000000002 1.5032256566749282 -0.036546778268299017 13.500000000000002 1.170287512938353 -1.2773297887742461 15.500000000000002 1.8781021171245467 16.500000000000004 15.500000000000002
decision_type=2 2 2 2 2 2 2 2 2 2 2 2 2 2 2 2 2 2 2 2 2 2 2 2 2 2 2 2 2 2
left_child=1 5 3 4 -3 -1 7 8 -2 11 28 12 -8 14 -7 -4 17 -17 -18 27 -9 -13 25 -16 -14 -19 -5 -10 -11 -26
right_child=6 2 15 26 -6 13 9 20 19 10 -12 21 24 -15 23 16 18 22 -20 -21 -22 -23 -24 -25 29 -27 -28 -29 -30 -31
leaf_value=0.083492262940863857 0.00049416651967286874 -0.11100676093994195 0.012508494811355107 -0.10798272607894231 0.15778554346475696 -0.025877627628934731 0.055816680686025445 -0.089702379141464728 0.17817977435483789 0.042334555849130984 0.21118468332686416 -0.014094500183154522 0.089100155683227655 -0.039534473485112631 0.045527515781604938 0.13969981715551011 0.034228040270778089 0.81061894159754877 0.16972985919997466 0.051256534547225868 0.10347057304803814 0.052635778895505705 0.1472639830932253 -0.014877696040718733 0.29126736965716343 0.31057894084397597 0.13080867610661051 0.32435529743375935 0.25701614938621969 0.085918078737657305
leaf_weight=283.89786769321654 303.5875630924711 76.220301087480038 156.03298991266638 538.77237724605948 210.57096324535087 7520.453558308538 590.61416244553402 763.94498551043216 178.05472862150054 701.05824331450276 251.46901739493478 1216.0627259063767 84.43005837360397 10506.230045243399 706.14341381553095 484.78362175216898 385.49193261330947 4.8788140136748543 145.9123289831914 74.004999215365387 38.983758470742032 411.30476051557343 59.031127788824961 657.99175071448553 95.347272051265463 112.77939370495733 20.325146280229092 67.408222497673705 21.977516865590587 27.942668159143068
leaf_count=152438 234545 1110 7524 4444 18722 6470516 366110 6218 83908 26114 77626 872091 62413 9278787 579336 196762 20371 1206 46927 45009 2638 245780 33359 550456 44828 27032 1829 22645 9902 18879
internal_value=-0.01059 -0.0200897 0.0567505 -0.0363586 0.0863488 -0.0286615 0.0324571 -0.00488139 0.0923405 0.0481161 0.0907476 0.0309893 0.0885108 -0.0303035 -0.0193877 0.115138 0.128563 0.174458 0.071434 0.179621 -0.0803235 0.00277107 0.269823 0.016391 0.181471 0.331314 -0.0993018 0.218322 0.0488601 0.244727
internal_weight=26695.7 21869.5 2194.8 845.889 286.791 19674.7 4826.19 1425.98 623.056 3400.21 974.505 2425.7 798.334 19390.8 8884.59 1348.91 1192.88 661.473 531.404 319.468 802.929 1627.37 176.689 1364.14 207.72 117.658 559.098 245.463 723.036 123.29
internal_count=19509525 17390819 359286 26105 19832 17031533 2118706 394963 386107 1723743 113642 1610101 492230 16879095 7600308 333181 325657 258359 67298 151562 8856 1117871 61597 1129792 126120 28238 6273 106553 36016 63707
is_linear=0
shrinkage=0.05


Tree=5
num_leaves=31
num_cat=0
split_feature=10 5 7 7 5 5 9 5 4 3 3 3 4 6 3 7 6 4 5 3 5 3 7 4 4 3 6 3 7 7
split_gain=3753.7 8365.86 3726.94 3426.21 1951.27 1883.25 1386.74 1726.98 1178.53 1621.89 827.212 804.394 766.6 689.279 619.168 581.083 565.56 489.759 1760.28 487.958 486.797 423.938 332.432 307.42 302.37 287.084 275.873 203.711 200.796 199.856
threshold=1.0000000180025095e-35 -0.097837841318495836 0.63297485013343013 0.63297485013343013 -0.067296902051162275 -0.062904027225038947 1.0000000180025095e-35 -0.09846539486508489 5.5000000000000009 15.500000000000002 17.500000000000004 12.500000000000002 2.5000000000000004 1.0000000180025095e-35 15.500000000000002 0.26731712215307568 1.0000000180025095e-35 5.5000000000000009 -0.089679645212838235 5.5000000000000009 -0.079847972982943188 16.500000000000004 1.3642903060941391 5.5000000000000009 2.5000000000000004 15.500000000000002 1.3505070761995877 17.500000000000004 0.9986325781137847 0.63297485013343013
decision_type=2 2 2 2 2 2 2 2 2 2 2 2 2 2 2 2 2 2 2 2 2 2 2 2 2 2 2 2 2 2
left_child=4 3 10 11 6 17 19 15 14 26 16 12 -2 29 -5 -8 24 22 21 -1 -18 -19 -4 27 -3 28 -10 -17 -15 -9
right_child=1 2 5 8 -6 -7 7 13 9 -11 -12 -13 -14 25 -16 23 20 18 -20 -21 -22 -23 -24 -25 -26 -27 -28 -29 -30 -31
leaf_value=0.060708079265037199 0.080782464127944154 0.10687851085311134 0.056615960654263053 -0.16980322645186013 -0.03200301646715327 0.18290811843299218 0.034644283662184298 -0.018360795973579758 -0.67942524034041052 0.14383215445168079 0.04292771757725887 0.072911495250605238 -0.047335696569497071 0.026984822745175985 0.037561616654815215 0.09676032536132867 0.31092425924987682 -0.48512373559600519 -0.0086950590586864895 -0.031369359100335267 0.17332300809482273 0.28811415776047561 -0.009380415581684419 0.18935356078374252 0.1642092233050727 -0.0105255152588627 -1.1924313612563617 -0.011188055414812942 0.074695165732257471 0.010758695266550738
leaf_weight=150.21291252283845 135.33972916007042 395.33898003480863 299.75474930903874 400.72058016899973 12096.575003470061 159.88260912196711 813.24779793864582 3114.7851354687009 13.38341976772063 6.6515105909202239 175.90694709913805 236.62924578296952 850.41900494601578 777.97377985785715 39.550976235652342 413.05377249850426 97.895899909897707 26.952529551461343 154.00007178867236 3415.6002580281347 187.1549930491019 1.897411782760172 525.00648753182031 83.945694455644116 549.87611811817624 369.28393879637588 3.2587065557017914 48.875486938981339 307.77589101623744 726.71341995312832
leaf_count=100946 5762 99452 14584 5412 10663931 37495 611304 2551583 748 286 84967 12609 8217 583069 1714 315688 11555 1235 2514 2955954 48125 295 9136 60114 137465 305458 213 40421 236303 602970
internal_value=-0.0102037 0.0328078 0.0895213 -0.0537674 -0.0184128 0.0234882 -0.00232954 0.0111506 -0.169513 -0.516112 0.144346 -0.00987338 -0.0297457 -0.00175124 -0.151175 0.0614295 0.158847 -0.0018078 -0.0758418 -0.0274905 0.22058 -0.434269 0.0146056 0.101334 0.14023 0.0275567 -0.779877 0.0853386 0.0405092 -0.0128521
internal_weight=26577.7 4259.62 2573.67 1685.95 22318 1167.49 10221.5 6655.65 463.565 23.2936 1406.17 1222.39 985.759 5296.53 440.272 1359.12 1230.27 1007.61 182.85 3565.81 285.051 28.8499 824.761 545.875 945.215 1455.03 16.6421 461.929 1085.75 3841.5
internal_count=19509525 481784 446823 34961 19027741 65259 8363810 5306910 8373 1247 381564 26588 13979 4279383 7126 1027527 296597 27764 4044 3056900 59680 1530 23720 416223 236917 1124830 961 356109 819372 3154553
is_linear=0
shrinkage=0.05


end of trees

feature_importances:
hour=44
time_since_prev_tx=31
amount_vs_user_median=26
log_amount=25
tx_count_24h=19
dayofweek=10
tx_count_1h=9
is_new_mcc_for_user=8
is_new_merchant_for_user=8

parameters:
[boosting: gbdt]
[objective: binary]
[metric: average_precision,binary_logloss]
[tree_learner: serial]
[device_type: cpu]
[data_sample_strategy: bagging]
[data: ]
[valid: ]
[num_iterations: 300]
[learning_rate: 0.05]
[num_leaves: 31]
[num_threads: 10]
[seed: 42]
[deterministic: 0]
[force_col_wise: 0]
[force_row_wise: 0]
[histogram_pool_size: -1]
[max_depth: -1]
[min_data_in_leaf: 100]
[min_sum_hessian_in_leaf: 0.001]
[bagging_fraction: 0.8]
[pos_bagging_fraction: 1]
[neg_bagging_fraction: 1]
[bagging_freq: 0]
[bagging_seed: 400]
[bagging_by_query: 0]
[feature_fraction: 0.8]
[feature_fraction_bynode: 1]
[feature_fraction_seed: 30056]
[extra_trees: 0]
[extra_seed: 12879]
[early_stopping_round: 0]
[early_stopping_min_delta: 0]
[first_metric_only: 0]
[max_delta_step: 0]
[lambda_l1: 0]
[lambda_l2: 0]
[linear_lambda: 0]
[min_gain_to_split: 0]
[drop_rate: 0.1]
[max_drop: 50]
[skip_drop: 0.5]
[xgboost_dart_mode: 0]
[uniform_drop: 0]
[drop_seed: 17869]
[top_rate: 0.2]
[other_rate: 0.1]
[min_data_per_group: 100]
[max_cat_threshold: 32]
[cat_l2: 10]
[cat_smooth: 10]
[max_cat_to_onehot: 4]
[top_k: 20]
[monotone_constraints: ]
[monotone_constraints_method: basic]
[monotone_penalty: 0]
[feature_contri: ]
[forcedsplits_filename: ]
[refit_decay_rate: 0.9]
[cegb_tradeoff: 1]
[cegb_penalty_split: 0]
[cegb_penalty_feature_lazy: ]
[cegb_penalty_feature_coupled: ]
[path_smooth: 0]
[interaction_constraints: ]
[verbosity: 1]
[saved_feature_importance_type: 0]
[use_quantized_grad: 0]
[num_grad_quant_bins: 4]
[quant_train_renew_leaf: 0]
[stochastic_rounding: 1]
[linear_tree: 0]
[max_bin: 255]
[max_bin_by_feature: ]
[min_data_in_bin: 3]
[bin_construct_sample_cnt: 200000]
[data_random_seed: 175]
[is_enable_sparse: 1]
[enable_bundle: 1]
[use_missing: 1]
[zero_as_missing: 0]
[feature_pre_filter: 1]
[pre_partition: 0]
[two_round: 0]
[header: 0]
[label_column: ]
[weight_column: ]
[group_column: ]
[ignore_column: ]
[categorical_feature: ]
[forcedbins_filename: ]
[precise_float_parser: 0]
[parser_config_file: ]
[objective_seed: 16083]
[num_class: 1]
[is_unbalance: 0]
[scale_pos_weight: 1]
[sigmoid: 1]
[boost_from_average: 1]
[reg_sqrt: 0]
[alpha: 0.9]
[fair_c: 1]
[poisson_max_delta_step: 0.7]
[tweedie_variance_power: 1.5]
[lambdarank_truncation_level: 30]
[lambdarank_norm: 1]
[label_gain: ]
[lambdarank_position_bias_regularization: 0]
[eval_at: ]
[multi_error_top_k: 1]
[auc_mu_weights: ]
[num_machines: 1]
[local_listen_port: 12400]
[time_out: 120]
[machine_list_filename: ]
[machines: ]
[gpu_platform_id: -1]
[gpu_device_id: -1]
[gpu_use_dp: 0]
[num_gpu: 1]

end of parameters

pandas_categorical:[]
